<?xml version="1.0"?>
<opencv_storage>
<stage0>
  <maxWeakCount>10</maxWeakCount>
  <stageThreshold>-1.2381825447082520e+00</stageThreshold>
  <weakClassifiers>
    <_>
      <internalNodes>
        0 -1 129361 1.1409449577331543e-01</internalNodes>
      <leafValues>
        -2.2319474816322327e-01 8.4922242164611816e-01</leafValues></_>
    <_>
      <internalNodes>
        0 -1 157760 3.2939647790044546e-03</internalNodes>
      <leafValues>
        -1.8712185323238373e-01 6.6155606508255005e-01</leafValues></_>
    <_>
      <internalNodes>
        0 -1 168935 -3.8456127513200045e-03</internalNodes>
      <leafValues>
        7.0543718338012695e-01 -1.9153003394603729e-01</leafValues></_>
    <_>
      <internalNodes>
        0 -1 169040 7.4243927374482155e-03</internalNodes>
      <leafValues>
        -1.8453539907932281e-01 7.1095955371856689e-01</leafValues></_>
    <_>
      <internalNodes>
        0 -1 162629 3.4971537534147501e-03</internalNodes>
      <leafValues>
        -1.6338393092155457e-01 6.1390411853790283e-01</leafValues></_>
    <_>
      <internalNodes>
        0 -1 153367 -5.3919889032840729e-03</internalNodes>
      <leafValues>
        6.2142801284790039e-01 -2.0995074510574341e-01</leafValues></_>
    <_>
      <internalNodes>
        0 -1 74041 1.4577786624431610e-01</internalNodes>
      <leafValues>
        1.4617240428924561e-01 -6.7941254377365112e-01</leafValues></_>
    <_>
      <internalNodes>
        0 -1 165340 -1.3665322959423065e-01</internalNodes>
      <leafValues>
        -9.0129548311233521e-01 1.3229823112487793e-01</leafValues></_>
    <_>
      <internalNodes>
        0 -1 141140 5.9568923898041248e-03</internalNodes>
      <leafValues>
        -2.2452893853187561e-01 5.3216361999511719e-01</leafValues></_>
    <_>
      <internalNodes>
        0 -1 146273 -4.4685741886496544e-03</internalNodes>
      <leafValues>
        4.9630463123321533e-01 -2.0231753587722778e-01</leafValues></_></weakClassifiers></stage0>
</opencv_storage>
